<?xml version="1.0"?>
<opencv_storage>
<!-- Created using Computer Vision System Toolbox(tm) for MATLAB(R) -->
<!-- Version 9.0.0.341360 (R2016a) -->
<!-- Compatible with OpenCV 2.4 -->
<cascade>
  <stageType>BOOST</stageType>
  <featureType>HOG</featureType>
  <height>39</height>
  <width>32</width>
  <stageParams>
    <boostType>GAB</boostType>
    <minHitRate>9.9500000476837158e-01</minHitRate>
    <maxFalseAlarm>2.0000000298023224e-01</maxFalseAlarm>
    <weightTrimRate>9.4999999999999996e-01</weightTrimRate>
    <maxDepth>1</maxDepth>
    <maxWeakCount>100</maxWeakCount></stageParams>
  <featureParams>
    <maxCatCount>0</maxCatCount>
    <featSize>36</featSize></featureParams>
  <stageNum>5</stageNum>
  <stages>
    <!-- stage 0 -->
    <_>
      <maxWeakCount>2</maxWeakCount>
      <stageThreshold>-9.3554109334945679e-02</stageThreshold>
      <weakClassifiers>
        <_>
          <internalNodes>
            0 -1 13 3.5760805010795593e-02</internalNodes>
          <leafValues>
            -9.3846154212951660e-01 7.5925928354263306e-01</leafValues></_>
        <_>
          <internalNodes>
            0 -1 8 4.6403340995311737e-02</internalNodes>
          <leafValues>
            -8.5281336307525635e-01 9.4139569997787476e-01</leafValues></_></weakClassifiers></_>
    <!-- stage 1 -->
    <_>
      <maxWeakCount>2</maxWeakCount>
      <stageThreshold>-1.3052658736705780e-01</stageThreshold>
      <weakClassifiers>
        <_>
          <internalNodes>
            0 -1 11 1.4017164707183838e-02</internalNodes>
          <leafValues>
            7.5999999046325684e-01 -8.7192118167877197e-01</leafValues></_>
        <_>
          <internalNodes>
            0 -1 9 1.4498280361294746e-02</internalNodes>
          <leafValues>
            7.4139457941055298e-01 -8.5466688871383667e-01</leafValues></_></weakClassifiers></_>
    <!-- stage 2 -->
    <_>
      <maxWeakCount>4</maxWeakCount>
      <stageThreshold>-4.7462004423141479e-01</stageThreshold>
      <weakClassifiers>
        <_>
          <internalNodes>
            0 -1 4 8.3713484928011894e-03</internalNodes>
          <leafValues>
            6.6990292072296143e-01 -8.5000002384185791e-01</leafValues></_>
        <_>
          <internalNodes>
            0 -1 5 4.0805209428071976e-02</internalNodes>
          <leafValues>
            -8.5401231050491333e-01 6.0585963726043701e-01</leafValues></_>
        <_>
          <internalNodes>
            0 -1 6 3.8646530359983444e-02</internalNodes>
          <leafValues>
            -8.2639551162719727e-01 6.0622018575668335e-01</leafValues></_>
        <_>
          <internalNodes>
            0 -1 15 3.0441857874393463e-02</internalNodes>
          <leafValues>
            -8.3669984340667725e-01 7.2652387619018555e-01</leafValues></_></weakClassifiers></_>
    <!-- stage 3 -->
    <_>
      <maxWeakCount>4</maxWeakCount>
      <stageThreshold>-3.2028114795684814e-01</stageThreshold>
      <weakClassifiers>
        <_>
          <internalNodes>
            0 -1 14 8.6864996701478958e-03</internalNodes>
          <leafValues>
            6.5384614467620850e-01 -8.4924620389938354e-01</leafValues></_>
        <_>
          <internalNodes>
            0 -1 10 1.4159780927002430e-02</internalNodes>
          <leafValues>
            5.3618824481964111e-01 -9.4384634494781494e-01</leafValues></_>
        <_>
          <internalNodes>
            0 -1 7 6.4541548490524292e-02</internalNodes>
          <leafValues>
            -6.4565193653106689e-01 7.7975666522979736e-01</leafValues></_>
        <_>
          <internalNodes>
            0 -1 0 4.1170507669448853e-02</internalNodes>
          <leafValues>
            -7.7125906944274902e-01 6.3842880725860596e-01</leafValues></_></weakClassifiers></_>
    <!-- stage 4 -->
    <_>
      <maxWeakCount>4</maxWeakCount>
      <stageThreshold>-5.5766230821609497e-01</stageThreshold>
      <weakClassifiers>
        <_>
          <internalNodes>
            0 -1 12 3.1172875314950943e-02</internalNodes>
          <leafValues>
            -9.4350284337997437e-01 5.2380955219268799e-01</leafValues></_>
        <_>
          <internalNodes>
            0 -1 2 3.8842771202325821e-02</internalNodes>
          <leafValues>
            -8.2903528213500977e-01 5.7549196481704712e-01</leafValues></_>
        <_>
          <internalNodes>
            0 -1 1 2.6505973190069199e-02</internalNodes>
          <leafValues>
            -8.7131553888320923e-01 4.8041543364524841e-01</leafValues></_>
        <_>
          <internalNodes>
            0 -1 3 4.2444743216037750e-02</internalNodes>
          <leafValues>
            -6.7006695270538330e-01 7.7348780632019043e-01</leafValues></_></weakClassifiers></_></stages>
  <features>
    <_>
      <rect>
        0 0 8 8 18</rect></_>
    <_>
      <rect>
        0 12 8 8 8</rect></_>
    <_>
      <rect>
        0 20 8 8 7</rect></_>
    <_>
      <rect>
        4 0 8 8 2</rect></_>
    <_>
      <rect>
        4 4 8 8 17</rect></_>
    <_>
      <rect>
        4 20 8 8 24</rect></_>
    <_>
      <rect>
        12 20 8 8 28</rect></_>
    <_>
      <rect>
        16 0 8 8 34</rect></_>
    <_>
      <rect>
        16 4 8 8 15</rect></_>
    <_>
      <rect>
        16 16 8 8 31</rect></_>
    <_>
      <rect>
        0 0 8 16 5</rect></_>
    <_>
      <rect>
        0 0 8 16 17</rect></_>
    <_>
      <rect>
        8 4 8 16 3</rect></_>
    <_>
      <rect>
        16 0 8 16 27</rect></_>
    <_>
      <rect>
        0 0 16 8 9</rect></_>
    <_>
      <rect>
        0 0 16 16 15</rect></_></features></cascade>
</opencv_storage>
